<?xml version="1.0"?>
<opencv_storage>
<!-- Created using Computer Vision System Toolbox(tm) for MATLAB(R) -->
<!-- Version 8.4.0.150421 (R2014b) -->
<!-- Compatible with OpenCV 2.4 -->
<cascade>
  <stageType>BOOST</stageType>
  <featureType>HOG</featureType>
  <height>20</height>
  <width>78</width>
  <stageParams>
    <boostType>GAB</boostType>
    <minHitRate>9.9900001287460327e-01</minHitRate>
    <maxFalseAlarm>5.0000000000000000e-01</maxFalseAlarm>
    <weightTrimRate>9.4999999999999996e-01</weightTrimRate>
    <maxDepth>1</maxDepth>
    <maxWeakCount>100</maxWeakCount></stageParams>
  <featureParams>
    <maxCatCount>0</maxCatCount>
    <featSize>36</featSize></featureParams>
  <stageNum>9</stageNum>
  <stages>
    <!-- stage 0 -->
    <_>
      <maxWeakCount>6</maxWeakCount>
      <stageThreshold>-2.3713300228118896e+00</stageThreshold>
      <weakClassifiers>
        <_>
          <internalNodes>
            0 -1 34 8.1206291913986206e-02</internalNodes>
          <leafValues>
            -9.2715233564376831e-01 6.0243409872055054e-01</leafValues></_>
        <_>
          <internalNodes>
            0 -1 39 6.4512513577938080e-02</internalNodes>
          <leafValues>
            -8.0548906326293945e-01 5.1757925748825073e-01</leafValues></_>
        <_>
          <internalNodes>
            0 -1 27 3.9714481681585312e-02</internalNodes>
          <leafValues>
            -8.0093038082122803e-01 4.9966460466384888e-01</leafValues></_>
        <_>
          <internalNodes>
            0 -1 29 4.1473045945167542e-02</internalNodes>
          <leafValues>
            -7.0722663402557373e-01 4.8818233609199524e-01</leafValues></_>
        <_>
          <internalNodes>
            0 -1 36 2.7632080018520355e-02</internalNodes>
          <leafValues>
            -6.8703216314315796e-01 4.7295999526977539e-01</leafValues></_>
        <_>
          <internalNodes>
            0 -1 52 2.8043158352375031e-02</internalNodes>
          <leafValues>
            -7.5137156248092651e-01 3.9650839567184448e-01</leafValues></_></weakClassifiers></_>
    <!-- stage 1 -->
    <_>
      <maxWeakCount>6</maxWeakCount>
      <stageThreshold>-2.3142983913421631e+00</stageThreshold>
      <weakClassifiers>
        <_>
          <internalNodes>
            0 -1 33 6.9269940257072449e-02</internalNodes>
          <leafValues>
            -9.0816915035247803e-01 3.5426539182662964e-01</leafValues></_>
        <_>
          <internalNodes>
            0 -1 30 4.5092958956956863e-02</internalNodes>
          <leafValues>
            -8.4521496295928955e-01 3.5168886184692383e-01</leafValues></_>
        <_>
          <internalNodes>
            0 -1 42 4.2576149106025696e-02</internalNodes>
          <leafValues>
            -7.2860974073410034e-01 4.8153311014175415e-01</leafValues></_>
        <_>
          <internalNodes>
            0 -1 21 5.0080470740795135e-02</internalNodes>
          <leafValues>
            -6.5808123350143433e-01 4.1140145063400269e-01</leafValues></_>
        <_>
          <internalNodes>
            0 -1 18 1.9473269581794739e-02</internalNodes>
          <leafValues>
            -7.2427481412887573e-01 4.2278516292572021e-01</leafValues></_>
        <_>
          <internalNodes>
            0 -1 3 2.9647972434759140e-02</internalNodes>
          <leafValues>
            -5.4053831100463867e-01 4.8056876659393311e-01</leafValues></_></weakClassifiers></_>
    <!-- stage 2 -->
    <_>
      <maxWeakCount>8</maxWeakCount>
      <stageThreshold>-2.6051623821258545e+00</stageThreshold>
      <weakClassifiers>
        <_>
          <internalNodes>
            0 -1 34 9.2948153614997864e-02</internalNodes>
          <leafValues>
            -8.9571982622146606e-01 2.5633803009986877e-01</leafValues></_>
        <_>
          <internalNodes>
            0 -1 38 6.3610710203647614e-02</internalNodes>
          <leafValues>
            -7.3120123147964478e-01 4.5169302821159363e-01</leafValues></_>
        <_>
          <internalNodes>
            0 -1 54 1.4735347591340542e-02</internalNodes>
          <leafValues>
            3.8668137788772583e-01 -7.1581524610519409e-01</leafValues></_>
        <_>
          <internalNodes>
            0 -1 50 1.7307545989751816e-02</internalNodes>
          <leafValues>
            3.0640926957130432e-01 -7.6188027858734131e-01</leafValues></_>
        <_>
          <internalNodes>
            0 -1 59 2.5553930550813675e-02</internalNodes>
          <leafValues>
            -8.5506588220596313e-01 3.1492421030998230e-01</leafValues></_>
        <_>
          <internalNodes>
            0 -1 61 2.6643645018339157e-02</internalNodes>
          <leafValues>
            -6.4058417081832886e-01 4.3134501576423645e-01</leafValues></_>
        <_>
          <internalNodes>
            0 -1 22 4.0277183055877686e-02</internalNodes>
          <leafValues>
            -6.5494227409362793e-01 3.6701363325119019e-01</leafValues></_>
        <_>
          <internalNodes>
            0 -1 4 4.1435226798057556e-02</internalNodes>
          <leafValues>
            -5.2795380353927612e-01 4.0812715888023376e-01</leafValues></_></weakClassifiers></_>
    <!-- stage 3 -->
    <_>
      <maxWeakCount>9</maxWeakCount>
      <stageThreshold>-2.3590896129608154e+00</stageThreshold>
      <weakClassifiers>
        <_>
          <internalNodes>
            0 -1 34 1.0477665811777115e-01</internalNodes>
          <leafValues>
            -8.5598093271255493e-01 8.8580578565597534e-02</leafValues></_>
        <_>
          <internalNodes>
            0 -1 41 2.6720985770225525e-02</internalNodes>
          <leafValues>
            -8.0964159965515137e-01 1.8173226714134216e-01</leafValues></_>
        <_>
          <internalNodes>
            0 -1 39 6.8808570504188538e-02</internalNodes>
          <leafValues>
            -5.8943903446197510e-01 4.1619423031806946e-01</leafValues></_>
        <_>
          <internalNodes>
            0 -1 35 4.3643757700920105e-02</internalNodes>
          <leafValues>
            -5.9692651033401489e-01 4.2404907941818237e-01</leafValues></_>
        <_>
          <internalNodes>
            0 -1 48 1.9218716770410538e-02</internalNodes>
          <leafValues>
            2.9843151569366455e-01 -8.4331589937210083e-01</leafValues></_>
        <_>
          <internalNodes>
            0 -1 64 1.9489187747240067e-02</internalNodes>
          <leafValues>
            -7.0286864042282104e-01 2.8599423170089722e-01</leafValues></_>
        <_>
          <internalNodes>
            0 -1 20 4.0305938571691513e-02</internalNodes>
          <leafValues>
            -6.7801725864410400e-01 3.2063114643096924e-01</leafValues></_>
        <_>
          <internalNodes>
            0 -1 17 1.7623569816350937e-02</internalNodes>
          <leafValues>
            -5.9922856092453003e-01 3.3071425557136536e-01</leafValues></_>
        <_>
          <internalNodes>
            0 -1 34 5.0901778042316437e-02</internalNodes>
          <leafValues>
            -6.1482638120651245e-01 3.3570602536201477e-01</leafValues></_></weakClassifiers></_>
    <!-- stage 4 -->
    <_>
      <maxWeakCount>9</maxWeakCount>
      <stageThreshold>-2.2385265827178955e+00</stageThreshold>
      <weakClassifiers>
        <_>
          <internalNodes>
            0 -1 32 7.9125031828880310e-02</internalNodes>
          <leafValues>
            -8.6951458454132080e-01 1.8640226125717163e-01</leafValues></_>
        <_>
          <internalNodes>
            0 -1 31 5.1425296813249588e-02</internalNodes>
          <leafValues>
            -7.9145461320877075e-01 2.3184311389923096e-01</leafValues></_>
        <_>
          <internalNodes>
            0 -1 0 3.2165966928005219e-02</internalNodes>
          <leafValues>
            -5.8657407760620117e-01 3.1665965914726257e-01</leafValues></_>
        <_>
          <internalNodes>
            0 -1 53 2.4533065035939217e-02</internalNodes>
          <leafValues>
            -6.8047845363616943e-01 3.0346578359603882e-01</leafValues></_>
        <_>
          <internalNodes>
            0 -1 42 3.6762446165084839e-02</internalNodes>
          <leafValues>
            -6.6196894645690918e-01 2.8000783920288086e-01</leafValues></_>
        <_>
          <internalNodes>
            0 -1 56 2.2677691653370857e-02</internalNodes>
          <leafValues>
            2.5921732187271118e-01 -7.9739320278167725e-01</leafValues></_>
        <_>
          <internalNodes>
            0 -1 16 2.6548676192760468e-02</internalNodes>
          <leafValues>
            -4.4266107678413391e-01 5.1567238569259644e-01</leafValues></_>
        <_>
          <internalNodes>
            0 -1 22 4.2258113622665405e-02</internalNodes>
          <leafValues>
            -6.2226516008377075e-01 3.2052439451217651e-01</leafValues></_>
        <_>
          <internalNodes>
            0 -1 40 1.8439570441842079e-02</internalNodes>
          <leafValues>
            -5.9323704242706299e-01 3.2952910661697388e-01</leafValues></_></weakClassifiers></_>
    <!-- stage 5 -->
    <_>
      <maxWeakCount>11</maxWeakCount>
      <stageThreshold>-2.3236734867095947e+00</stageThreshold>
      <weakClassifiers>
        <_>
          <internalNodes>
            0 -1 1 4.3896824121475220e-02</internalNodes>
          <leafValues>
            -7.5316786766052246e-01 1.6464471817016602e-01</leafValues></_>
        <_>
          <internalNodes>
            0 -1 5 4.2204901576042175e-02</internalNodes>
          <leafValues>
            -7.4448013305664062e-01 2.7158966660499573e-01</leafValues></_>
        <_>
          <internalNodes>
            0 -1 34 8.7903454899787903e-02</internalNodes>
          <leafValues>
            -5.9915429353713989e-01 3.3171501755714417e-01</leafValues></_>
        <_>
          <internalNodes>
            0 -1 62 3.1500659883022308e-02</internalNodes>
          <leafValues>
            -7.8207153081893921e-01 2.8546398878097534e-01</leafValues></_>
        <_>
          <internalNodes>
            0 -1 45 2.5372680276632309e-02</internalNodes>
          <leafValues>
            -4.2564275860786438e-01 4.7235545516014099e-01</leafValues></_>
        <_>
          <internalNodes>
            0 -1 58 2.1672982722520828e-02</internalNodes>
          <leafValues>
            -7.7697670459747314e-01 2.5513362884521484e-01</leafValues></_>
        <_>
          <internalNodes>
            0 -1 9 1.5468537807464600e-02</internalNodes>
          <leafValues>
            2.8569045662879944e-01 -6.1764478683471680e-01</leafValues></_>
        <_>
          <internalNodes>
            0 -1 3 2.0527830347418785e-02</internalNodes>
          <leafValues>
            -6.6533696651458740e-01 2.4899159371852875e-01</leafValues></_>
        <_>
          <internalNodes>
            0 -1 43 1.8641142174601555e-02</internalNodes>
          <leafValues>
            -5.3147220611572266e-01 2.9238146543502808e-01</leafValues></_>
        <_>
          <internalNodes>
            0 -1 26 3.7446621805429459e-02</internalNodes>
          <leafValues>
            -5.8586585521697998e-01 2.5632718205451965e-01</leafValues></_>
        <_>
          <internalNodes>
            0 -1 17 4.1742816567420959e-02</internalNodes>
          <leafValues>
            -3.1752800941467285e-01 5.8470278978347778e-01</leafValues></_></weakClassifiers></_>
    <!-- stage 6 -->
    <_>
      <maxWeakCount>11</maxWeakCount>
      <stageThreshold>-1.8419800996780396e+00</stageThreshold>
      <weakClassifiers>
        <_>
          <internalNodes>
            0 -1 39 9.0070195496082306e-02</internalNodes>
          <leafValues>
            -7.3263156414031982e-01 2.6275992393493652e-01</leafValues></_>
        <_>
          <internalNodes>
            0 -1 29 4.5691512525081635e-02</internalNodes>
          <leafValues>
            -6.7660343647003174e-01 1.9092001020908356e-01</leafValues></_>
        <_>
          <internalNodes>
            0 -1 15 1.9576754420995712e-02</internalNodes>
          <leafValues>
            -4.7706735134124756e-01 4.2497274279594421e-01</leafValues></_>
        <_>
          <internalNodes>
            0 -1 37 3.5812135785818100e-02</internalNodes>
          <leafValues>
            -4.0965497493743896e-01 4.4673553109169006e-01</leafValues></_>
        <_>
          <internalNodes>
            0 -1 25 7.4898585677146912e-02</internalNodes>
          <leafValues>
            -5.3163564205169678e-01 3.8303485512733459e-01</leafValues></_>
        <_>
          <internalNodes>
            0 -1 65 2.0159941166639328e-02</internalNodes>
          <leafValues>
            -5.9901368618011475e-01 3.2589006423950195e-01</leafValues></_>
        <_>
          <internalNodes>
            0 -1 0 1.9877325743436813e-02</internalNodes>
          <leafValues>
            -7.6936042308807373e-01 1.6749373078346252e-01</leafValues></_>
        <_>
          <internalNodes>
            0 -1 46 3.0724106356501579e-02</internalNodes>
          <leafValues>
            -4.3656504154205322e-01 3.8562551140785217e-01</leafValues></_>
        <_>
          <internalNodes>
            0 -1 44 2.2697247564792633e-02</internalNodes>
          <leafValues>
            -5.5346685647964478e-01 2.6936668157577515e-01</leafValues></_>
        <_>
          <internalNodes>
            0 -1 55 2.3972392082214355e-02</internalNodes>
          <leafValues>
            -7.0040988922119141e-01 2.2398684918880463e-01</leafValues></_>
        <_>
          <internalNodes>
            0 -1 14 4.0878206491470337e-02</internalNodes>
          <leafValues>
            -3.0718591809272766e-01 5.4625058174133301e-01</leafValues></_></weakClassifiers></_>
    <!-- stage 7 -->
    <_>
      <maxWeakCount>13</maxWeakCount>
      <stageThreshold>-1.6113786697387695e+00</stageThreshold>
      <weakClassifiers>
        <_>
          <internalNodes>
            0 -1 24 6.5494731068611145e-02</internalNodes>
          <leafValues>
            -5.9193170070648193e-01 4.3589743971824646e-01</leafValues></_>
        <_>
          <internalNodes>
            0 -1 38 6.7104652523994446e-02</internalNodes>
          <leafValues>
            -5.1695662736892700e-01 4.0989995002746582e-01</leafValues></_>
        <_>
          <internalNodes>
            0 -1 49 1.7412614077329636e-02</internalNodes>
          <leafValues>
            2.9241180419921875e-01 -5.7492339611053467e-01</leafValues></_>
        <_>
          <internalNodes>
            0 -1 60 1.2241512537002563e-02</internalNodes>
          <leafValues>
            -6.9862151145935059e-01 2.9014194011688232e-01</leafValues></_>
        <_>
          <internalNodes>
            0 -1 31 6.2675133347511292e-02</internalNodes>
          <leafValues>
            -5.1312714815139771e-01 3.8173791766166687e-01</leafValues></_>
        <_>
          <internalNodes>
            0 -1 11 1.3654533773660660e-02</internalNodes>
          <leafValues>
            -5.5158817768096924e-01 2.8269401192665100e-01</leafValues></_>
        <_>
          <internalNodes>
            0 -1 12 1.9442515447735786e-02</internalNodes>
          <leafValues>
            2.3041154444217682e-01 -6.1795848608016968e-01</leafValues></_>
        <_>
          <internalNodes>
            0 -1 35 3.2173741608858109e-02</internalNodes>
          <leafValues>
            -6.8893158435821533e-01 1.6128034889698029e-01</leafValues></_>
        <_>
          <internalNodes>
            0 -1 2 1.8910583108663559e-02</internalNodes>
          <leafValues>
            -5.4312264919281006e-01 2.5069481134414673e-01</leafValues></_>
        <_>
          <internalNodes>
            0 -1 19 2.8171397745609283e-02</internalNodes>
          <leafValues>
            -4.9485409259796143e-01 2.7133110165596008e-01</leafValues></_>
        <_>
          <internalNodes>
            0 -1 47 1.4571290463209152e-02</internalNodes>
          <leafValues>
            -6.3276952505111694e-01 2.3891374468803406e-01</leafValues></_>
        <_>
          <internalNodes>
            0 -1 4 4.1728720068931580e-02</internalNodes>
          <leafValues>
            -4.7954532504081726e-01 2.3127731680870056e-01</leafValues></_>
        <_>
          <internalNodes>
            0 -1 6 1.7613178119063377e-02</internalNodes>
          <leafValues>
            -5.3893369436264038e-01 2.8348049521446228e-01</leafValues></_></weakClassifiers></_>
    <!-- stage 8 -->
    <_>
      <maxWeakCount>16</maxWeakCount>
      <stageThreshold>-1.4591410160064697e+00</stageThreshold>
      <weakClassifiers>
        <_>
          <internalNodes>
            0 -1 51 1.8285822123289108e-02</internalNodes>
          <leafValues>
            5.8564233779907227e-01 -4.7234043478965759e-01</leafValues></_>
        <_>
          <internalNodes>
            0 -1 23 9.2259421944618225e-02</internalNodes>
          <leafValues>
            -3.2645195722579956e-01 5.9120702743530273e-01</leafValues></_>
        <_>
          <internalNodes>
            0 -1 39 4.3655633926391602e-02</internalNodes>
          <leafValues>
            -6.8200236558914185e-01 2.9441672563552856e-01</leafValues></_>
        <_>
          <internalNodes>
            0 -1 1 5.7875517755746841e-02</internalNodes>
          <leafValues>
            -2.2007215023040771e-01 8.4070926904678345e-01</leafValues></_>
        <_>
          <internalNodes>
            0 -1 67 1.4809414744377136e-02</internalNodes>
          <leafValues>
            -5.8457005023956299e-01 2.7431702613830566e-01</leafValues></_>
        <_>
          <internalNodes>
            0 -1 28 3.5478029400110245e-02</internalNodes>
          <leafValues>
            -6.5470391511917114e-01 2.0268602669239044e-01</leafValues></_>
        <_>
          <internalNodes>
            0 -1 41 3.5792544484138489e-02</internalNodes>
          <leafValues>
            -3.8516739010810852e-01 3.5780733823776245e-01</leafValues></_>
        <_>
          <internalNodes>
            0 -1 13 2.7338448911905289e-02</internalNodes>
          <leafValues>
            -3.4641188383102417e-01 3.9090976119041443e-01</leafValues></_>
        <_>
          <internalNodes>
            0 -1 7 1.3826590962707996e-02</internalNodes>
          <leafValues>
            2.6284047961235046e-01 -5.0835049152374268e-01</leafValues></_>
        <_>
          <internalNodes>
            0 -1 63 3.3992774784564972e-02</internalNodes>
          <leafValues>
            -5.9279721975326538e-01 2.4533800780773163e-01</leafValues></_>
        <_>
          <internalNodes>
            0 -1 66 2.2164408117532730e-02</internalNodes>
          <leafValues>
            -4.6692168712615967e-01 3.1280225515365601e-01</leafValues></_>
        <_>
          <internalNodes>
            0 -1 4 5.9580147266387939e-02</internalNodes>
          <leafValues>
            -3.1054195761680603e-01 3.9599978923797607e-01</leafValues></_>
        <_>
          <internalNodes>
            0 -1 57 4.3609917163848877e-02</internalNodes>
          <leafValues>
            2.0500005781650543e-01 -7.0375186204910278e-01</leafValues></_>
        <_>
          <internalNodes>
            0 -1 10 2.9651971533894539e-02</internalNodes>
          <leafValues>
            -3.7269932031631470e-01 3.1275093555450439e-01</leafValues></_>
        <_>
          <internalNodes>
            0 -1 8 3.4196671098470688e-02</internalNodes>
          <leafValues>
            -3.1235080957412720e-01 4.8640334606170654e-01</leafValues></_>
        <_>
          <internalNodes>
            0 -1 20 4.5543227344751358e-02</internalNodes>
          <leafValues>
            -4.6303951740264893e-01 2.9359814524650574e-01</leafValues></_></weakClassifiers></_></stages>
  <features>
    <_>
      <rect>
        0 0 8 8 16</rect></_>
    <_>
      <rect>
        0 4 8 8 24</rect></_>
    <_>
      <rect>
        4 0 8 8 6</rect></_>
    <_>
      <rect>
        4 0 8 8 25</rect></_>
    <_>
      <rect>
        4 0 8 8 26</rect></_>
    <_>
      <rect>
        4 4 8 8 8</rect></_>
    <_>
      <rect>
        4 4 8 8 22</rect></_>
    <_>
      <rect>
        12 0 8 8 3</rect></_>
    <_>
      <rect>
        12 0 8 8 15</rect></_>
    <_>
      <rect>
        12 0 8 8 22</rect></_>
    <_>
      <rect>
        16 0 8 8 1</rect></_>
    <_>
      <rect>
        16 4 8 8 23</rect></_>
    <_>
      <rect>
        20 0 8 8 11</rect></_>
    <_>
      <rect>
        20 4 8 8 20</rect></_>
    <_>
      <rect>
        20 4 8 8 22</rect></_>
    <_>
      <rect>
        20 4 8 8 23</rect></_>
    <_>
      <rect>
        24 0 8 8 5</rect></_>
    <_>
      <rect>
        24 0 8 8 6</rect></_>
    <_>
      <rect>
        24 0 8 8 7</rect></_>
    <_>
      <rect>
        24 4 8 8 8</rect></_>
    <_>
      <rect>
        28 0 8 8 9</rect></_>
    <_>
      <rect>
        28 0 8 8 10</rect></_>
    <_>
      <rect>
        28 0 8 8 27</rect></_>
    <_>
      <rect>
        28 0 8 8 28</rect></_>
    <_>
      <rect>
        28 4 8 8 9</rect></_>
    <_>
      <rect>
        28 4 8 8 10</rect></_>
    <_>
      <rect>
        28 4 8 8 28</rect></_>
    <_>
      <rect>
        32 0 8 8 9</rect></_>
    <_>
      <rect>
        32 4 8 8 10</rect></_>
    <_>
      <rect>
        32 4 8 8 18</rect></_>
    <_>
      <rect>
        32 4 8 8 19</rect></_>
    <_>
      <rect>
        36 0 8 8 1</rect></_>
    <_>
      <rect>
        36 0 8 8 19</rect></_>
    <_>
      <rect>
        36 4 8 8 0</rect></_>
    <_>
      <rect>
        36 4 8 8 1</rect></_>
    <_>
      <rect>
        36 4 8 8 19</rect></_>
    <_>
      <rect>
        40 0 8 8 16</rect></_>
    <_>
      <rect>
        44 0 8 8 16</rect></_>
    <_>
      <rect>
        44 0 8 8 35</rect></_>
    <_>
      <rect>
        44 4 8 8 17</rect></_>
    <_>
      <rect>
        48 0 8 8 6</rect></_>
    <_>
      <rect>
        48 0 8 8 7</rect></_>
    <_>
      <rect>
        48 0 8 8 26</rect></_>
    <_>
      <rect>
        56 0 8 8 11</rect></_>
    <_>
      <rect>
        56 4 8 8 31</rect></_>
    <_>
      <rect>
        56 4 8 8 32</rect></_>
    <_>
      <rect>
        60 4 8 8 28</rect></_>
    <_>
      <rect>
        60 4 8 8 29</rect></_>
    <_>
      <rect>
        0 0 16 8 21</rect></_>
    <_>
      <rect>
        0 0 16 8 22</rect></_>
    <_>
      <rect>
        0 4 16 8 3</rect></_>
    <_>
      <rect>
        4 0 16 8 22</rect></_>
    <_>
      <rect>
        4 4 16 8 8</rect></_>
    <_>
      <rect>
        12 0 16 8 18</rect></_>
    <_>
      <rect>
        12 0 16 8 31</rect></_>
    <_>
      <rect>
        16 4 16 8 0</rect></_>
    <_>
      <rect>
        16 4 16 8 16</rect></_>
    <_>
      <rect>
        16 4 16 8 17</rect></_>
    <_>
      <rect>
        20 4 16 8 19</rect></_>
    <_>
      <rect>
        24 4 16 8 19</rect></_>
    <_>
      <rect>
        28 0 16 8 15</rect></_>
    <_>
      <rect>
        28 0 16 8 16</rect></_>
    <_>
      <rect>
        28 0 16 8 17</rect></_>
    <_>
      <rect>
        28 0 16 8 18</rect></_>
    <_>
      <rect>
        28 4 16 8 34</rect></_>
    <_>
      <rect>
        32 4 16 8 34</rect></_>
    <_>
      <rect>
        36 4 16 8 31</rect></_>
    <_>
      <rect>
        36 4 16 8 33</rect></_></features></cascade>
</opencv_storage>
